function [y1] = matLabNetCheck(x1)
%MATLABNETCHECK neural network simulation function.
%
% Generated by Neural Network Toolbox function genFunction, 01-Nov-2018 16:02:13.
% 
% [y1] = matLabNetCheck(x1) takes these arguments:
%   x = 19xQ matrix, input #1
% and returns:
%   y = 8xQ matrix, output #1
% where Q is the number of samples.

%#ok<*RPMT0>

% ===== NEURAL NETWORK CONSTANTS =====

% Input 1
x1_step1.xoffset = [-0.999445765565397;-0.999954717840799;-0.499959664463165;0.00230088093295056;0.0040731459976362;0.00346201787868594;0.00279804510655346;0.000872368694753156;0.00340471243840401;0.000593671982600519;0.000905476548704875;1.0690809722691e-05;2.93052703389973e-05;4.28644192292715e-05;5.07510720280102e-06;7.55034488397755e-07;1.11880142486642e-05;1.71782126905384e-06;5.31741637344041e-07];
x1_step1.gain = [1.00030596168364;1.00006405178253;2.00023142493915;0.100016681156093;0.100023239512834;0.100025275123852;0.100015255670665;0.100014231130607;0.100020201579075;0.100003207014231;0.100013730774331;20.0023547820032;20.0068202735391;20.0087264147033;20.00152495384;20.0013255915158;20.0039773264452;20.0030616559264;20.0028479488018];
x1_step1.ymin = -1;

% Layer 1
b1 = [0.10062753527506174134;-0.022998527537588509678;0.9196445951912343153;-0.48295194730383689263;1.3119864224484101278;0.18949517991584660659;0.090045052307885301013;0.070140455491931805176;0.30877711695896831179;0.29864037400757081908;0.094810723894474299711;-0.73750257053547163544;0.24746853360617573903;-0.15512502551075746382;-0.064113602928896229471;0.0063188998074551645801;0.3746782343442212615;0.68385632830789155889;0.56731345670387622881;0.25658744881607475907;0.62931020330358777848;-0.25696154362583301101;0.32309791567741241725;0.091814433465691611125;-1.3784175808849574718;-0.016270560190591754068;0.039627148839889533849;1.3440123159180636936;0.68900864719067667075;-0.32170609978172520771];
IW1_1 = [-0.059181174484368215261 -0.017874294930119875857 0.4328556422301222395 0.17690037156046600764 0.1830493031322841524 0.22430444527712953273 0.064888163876932719587 0.11245890411463431435 0.0152791755420336791 0.045590654531951234352 0.0057388008588340486474 -0.076790330221168434655 -0.082657195337602074048 -0.074173783936386641913 -0.046844951974011922458 -0.044429776959553607396 -0.0051705401091370738892 -0.013996805137727465901 -0.0072295597258873580196;0.023564904954172540691 0.36443997341039119364 -0.49849679428443632867 -0.073000435495837692756 -0.091726976634264600907 -0.049121835946546427154 -0.029823706708926280701 -0.029621149666380439808 -0.055418497996649739024 -0.096862786536473358123 -0.179212791185149517 -0.016604339839403525064 -0.01278166919410459422 -0.026334349375795963744 -0.0090783388199961751602 -0.0098555943912295787546 -0.0073908694007316991237 -0.0053635578439148448235 0.0034444306198427162777;0.18379228791421026168 1.9141245275736420428 1.1194425382518555789 -0.24002591505614651046 0.29020173571104723731 0.10225299835383375169 0.079882463801220257582 -0.00057413530177794803999 -0.020821096068514136079 0.0075356124275088474593 -0.069241114299614645033 -0.15121356480481989992 -0.11011091083915994226 -0.11897617369610140325 -0.092573503696800021889 -0.035718297398617988858 -0.00088821025133300568564 0.0019549126698858811969 -0.011361511111740409813;0.070854286241472608232 -0.10505143803521412027 -1.2388483768208711222 0.26750903076400062153 0.16046451024234753557 0.14762225316957353072 0.036123280211672090245 0.061249615533870156725 0.17615578898509101635 0.21429054502069788679 0.27295927273724696072 0.0332873418049098313 0.035509171026332338184 0.067118802630959831235 0.060382110033941741034 0.045047709331151930545 0.072059089779434981615 0.02921498448711387988 -0.001736040003731103426;0.0079933716464399492962 0.45401520692991031991 1.7896467233203419145 -0.063461667307045596664 -0.0098587901162342870404 -0.051437147556614500055 0.013995796121856769051 -0.030660063533167528776 -0.019956744290929213231 -0.010498719249008048662 0.12683886839352781495 -0.032923110492191147436 -0.0079504479995197371855 -0.019662581867740176744 -0.026249573890185843444 -0.021457718748193677777 -0.025201001502993706366 -0.010778375509784453995 -0.0020542466323174041892;0.14205256606712374223 1.1659298388401044821 0.29186074900430514223 -0.25598386095266040252 -0.2778440391546483923 -0.22100404999071623924 -0.011769067346681403446 -0.022046125145363023451 -0.31259900273793872483 -0.41130388318274485604 -0.20060261272751228612 -0.045521696604310601941 -0.096908230569698425305 -0.062054745114126765027 -0.046989468170278415882 -0.025760080214829176454 -0.0079408676834194641403 0.010267922258373529676 0.0038150238682976922791;0.018620938856138333911 0.016180527564213526698 -0.13365573403576960776 0.012816564223449723042 0.14026864968718616433 -0.00044359992598630643753 0.007819689978643075759 0.046632812344712781805 0.072981056162580298929 0.061143344327695012264 -0.0045842837888765324353 0.0040371600946734701593 0.063814444094881753178 -0.021049530276900287745 -0.0038146977911213105286 -0.00079979646829461583778 0.0095526015963056133684 0.0069162067390211691767 -0.00087951559602425489169;-0.046192687522078376694 -0.58914131344909226318 -1.260916139439826722 -0.15550978216278646404 0.14687586888742604208 0.089439351558911375784 -0.045051992290352615989 -0.18178311800812560484 0.03923861705319473675 0.14010604266184700784 0.13744323861336296688 0.061727729640036456404 -0.0020755252151087710127 0.038999978475363843156 0.026698380598034681527 0.027277442847969134848 0.0054232609545667338768 0.027701572941233723602 -0.013018953440435706778;0.23758621518322628474 2.2669626073642032971 2.1928451354927189776 -0.12321470299972893392 0.0076836894624939585524 0.016361387230517405317 0.0052771670736267879687 -0.015071932096298987572 -0.052895910276429147778 -0.0042349809100157391473 -0.014159935556826815789 -0.17501171642655952154 -0.11032703192130689784 -0.065011850618642202937 -0.052373448622327893609 -0.015827553342748379439 -0.00018039405243881821532 0.0055127080950909661955 -0.0059888602898446937489;-0.03245290742508410986 -0.53473927205959881359 -0.95916537038111304714 -0.046932477574810900489 0.2795119940458259955 -0.10776039588699819205 -0.3107331388274010564 0.27771776652803903396 -0.13533933981949708425 0.26269268761305342164 -0.069993210918603249171 0.037888834898531835449 0.069548943843303082102 0.072275200189309024568 0.026037210186912171372 0.075515415396998450404 -0.013383458774576303257 0.0041961713784780694733 -0.017879049489064904183;0.010513980979247005559 -0.092732829543412886864 -0.32424938877121683989 0.28895483106469477264 -0.076547842296408236118 0.036878809324836461792 0.00017087180802166646032 0.07055599916173969921 0.11390236827745699177 0.051469782980978366627 -0.026934444019728300684 0.13676048243233332458 -0.052805339003967846634 0.011647691683494632367 -0.052411888738898189388 -0.010188331082647380382 0.023240788162061883082 -0.009232069889409541541 -0.014825724551034754478;-0.026705298968504181945 0.20039052289723874312 1.7564070541471905607 -0.21524183257598797359 -0.10635510214680309049 -0.024009433888716638639 0.085023842890634998559 -0.097757834239573626611 -0.20499174849674342558 -0.30422595926597817417 -0.5922938334487095613 -0.035962439566241524713 0.044400539723834606121 -0.062642843753293903086 0.05366638292293045287 0.051170348059891082593 0.040809708157798489647 0.033679240082992792371 -0.02790910255175432092;-0.030351412264716746275 -0.39779865367871586335 -0.27274411116998520388 -0.035041608807479002197 -0.16038127395426296506 -0.18022975752312350717 -0.042823138357890963568 -0.048134471009583554291 -0.21266069447387223046 0.046127906905340861077 0.00079822915318636280917 0.032826512215903408398 0.014267186595660308682 0.0033955928867911927896 0.023197962655981591018 0.0038461271575175271994 -0.0050799766096616249395 -0.00010039569153577333717 0.0087813035877420814179;0.073331423349624669239 0.6146158629297395759 0.39100714639731248834 0.20114997907059622984 -0.43362170609280781264 -0.104930249064351791 -0.15769316092800195195 -0.12446069752114269358 -0.028991745292183863231 -0.073829015341830048214 -0.057497591078276032162 -0.16003714126143220309 0.20157278326675612257 0.051108709147986104704 0.012061771977139396084 0.027079912442601068029 0.048371139791511960637 0.038047407963126361752 -0.0072822032338602602636;0.016926181209999457272 0.10599249940536176195 0.14869336463702750861 -0.03824908931693583175 -0.0092132473044401388268 0.1271736508181599834 -0.089959064392677159927 0.0099273954599508190677 0.019494397613200667441 -0.013375596293205074816 -0.032151668335904742824 -0.033262859477984310641 0.0047384870240193945404 0.10402648292472019276 -0.059186100393358323513 0.016181630339419540016 0.0042219736365313861523 0.014109437733575777227 -0.010148258707255464542;0.0071518511642801830749 -0.0068076220307714810018 -0.025873956593720780911 -0.13337348494802078736 -0.030079789633064252935 0.011481976567219271193 -0.047383326946708430316 -0.03919304988210219054 0.0018594210108387357154 0.021518227544180257294 0.0064582013476727267651 0.1052550485549644671 0.020281816506865849026 -0.017603067451851531905 0.0010251997699785746817 0.0036556008305633708524 -0.0090962298550080530196 -0.010830376942542371474 -0.0073212502869966552405;0.14540409746703736316 1.3310390358464347926 1.3547078908757150817 0.034987319902730379395 0.062804003847736447619 -0.11764497466270025516 -0.090029435957468734175 0.0075463707644851506923 0.010953973861314894936 0.099403635652594815597 0.15582690988848207914 -0.09573534645485469452 -0.12457110341415469912 0.018584994726834291184 0.025864498747855301647 0.025488478704361182403 0.016167406410654623639 -0.013439654218967065497 -0.00067851940071971678092;0.1395614605126568597 1.1097715041363414024 -0.057954887046203544532 0.19804324595751132687 -0.093875295388358911963 0.18105974746334424497 0.13535545710644011907 0.25685077556095076146 0.15183172814408840701 -0.025740282233578312687 -0.31687260024785252055 -0.074847189884597237208 -0.089425204997094900894 -0.11007505342657887548 -0.06386484651040541527 -0.027622174592970796803 0.010494692996816939665 0.018663054959896448887 -0.0016300436131371342369;0.092003710597799756576 1.1840777718587813805 1.6274716226393388663 -0.079794474237207146938 -0.063056677984495393408 -0.099246542217703695443 -0.036711195080022504533 0.034501736989101451647 -0.021810142530080164902 0.011820073493760789585 0.0028172582140013639404 -0.093043086590051019003 -0.077078137844932795297 -0.069090333913961118895 -0.030449285027114560143 -0.014373690489183785224 -0.002476180848729234163 0.0021773935212532481535 -0.0042328912274277328068;0.0073229234459951299957 -0.025326795149142648789 -0.41045982292287452875 0.05264084036330599764 0.091571101894589918002 0.13851380583706909833 0.19505674291452401725 0.11946391719057994352 -0.030406987542138826791 -0.032070547814309791068 -0.012798877482847418469 -0.0091135820437189610232 -0.0062620760272140219352 0.048155889926730449657 0.075003458465186509385 0.030162846758936628921 0.0075579751885547444973 -0.012257492509448669055 -0.00083786157003425132134;0.011400349064707090974 -0.075032390693908046497 0.181563090144153505 -0.022729600578820625956 -0.28041686004006222133 -0.069802501901163438447 -0.049651569392711231155 0.045072547619388850237 -0.077018980648036139414 -0.43899756233885806056 0.028329753041709385131 -0.015304255246557091699 0.0052000419096945400474 0.043910574729786780446 0.076689143864068415324 0.040312592260030963298 0.015997475766459597762 0.0012894531041181050632 0.011267762329140359676;0.040533444582985328486 0.0032855271784283266931 -0.38870092157090824214 0.13042929328372607212 0.11770947409966080188 0.094319246174871793076 0.18756681401126901187 0.17644585410710478257 0.045280793570173519247 -0.043074676536137022909 -0.070725393858569921002 0.026823730839136663423 0.039204133472999537491 0.013765819296880761613 0.0039945136626921033327 -0.020468853409219608247 0.010856831613786326399 -0.0076564461927173567413 -0.0059294131807710818288;0.0036851469868878512087 0.07996333946876733878 0.69417708624082707924 0.1120780007331037692 0.13060310785099779607 -0.054097568411935498256 0.11264111330335013772 0.17023522226058715456 0.24572836712101131518 0.20584851479655449924 -0.02378207433048924041 0.053199295401627086366 0.0088907563422331980368 0.0581588375454747189 -0.020578264231499776571 0.0085905725623609610619 -0.0038764638905363652671 0.0061526230883039902814 -0.0099366189211272035187;0.0019517536953478189024 0.23172659777461854236 0.44080162154095792193 -0.064897928767242415993 -0.2354837455466345375 -0.17320140478151901942 -0.15738585113885197875 -0.046468718101041431301 -0.094900215914412874851 0.059999613125131925906 0.05037954874564917751 -0.032271016924169615425 -0.0015755338082853796548 0.0017683780985641803923 0.0060274716843119295617 -0.0093625478667349101153 0.0034293279541289878667 -0.0019450483780342211169 0.0037548631091828964419;0.15551203471224214758 1.823377286981923362 2.1075913510529811212 0.15798114081690584065 -0.33110847973414320178 -0.44723688015834672793 -0.24207019029073437166 -0.05933669787274966495 0.14980826663353008499 0.16538942609796095096 0.16827438918795109557 -0.13324281534482651512 -0.16353751181045594887 -0.049658042437114087442 -0.074186583699307903639 -0.010320053756897077171 -0.03258249208059918467 -0.016629755245477523262 0.015544869690692169478;-0.04224170983352892178 -0.35906410247708947514 -0.14627985232436530039 -0.02865165916939637486 -0.086840614128581350428 -0.07917270510026439001 -0.13202740783943225922 -0.096618026308442059302 -0.027453209364179019525 0.030857237727524237936 0.035120775276564653034 0.024237083359250954917 0.010122299311084775528 -0.00092792913260166800735 -0.014379445359355338269 -0.01584056557719282915 -0.0011852758904398359718 0.0037325974219981441528 -0.002908571894320530378;0.003877846296966710668 -0.33017848174705832776 -0.17947966798310602266 0.10617351374173297773 0.0032253990912118352813 -0.099480130919983547622 -0.0096817019038291460969 0.013853026562575912126 0.0018598728395071903712 0.038105440590691097569 -0.098801031018819651663 0.022182070166223678831 0.046666778381993470615 0.05310362522041327249 0.060058455653808483221 0.021386688474808325522 0.029869790987719888747 0.0048655078001384292896 0.0042100113409340661833;-0.12872521402997971762 -1.4892342557366498035 -1.7372027418824338429 -0.030914880272116626592 0.22326035113122696951 0.09236942133325343196 0.085058134338555108078 -0.032112934666315276488 0.021613780740246835155 -0.063361985614168753189 -0.024331886023611019876 0.10569199640550293318 0.095725836031334193832 0.093800751837115420306 0.072409143385291002692 0.038234710486032608134 0.0088913666537641308785 0.0034099115532071674201 0.0045668493576683701768;0.043776679594505228665 0.42460367243274560467 -0.52898671478941194923 -0.045169638200628310643 -0.14290722003542738472 -0.21322513386189823059 -0.085515989756524829479 -0.099635406494205575045 -0.074252100422577890781 0.084434312743868825124 0.036728327534234259111 -0.012206606778038336936 -0.0024818252005442708631 -0.02858521184040784674 -0.00987367756973113464 -0.012978515244822682456 0.0023771865358381471731 0.00014935380438219482239 -0.00079425752288558989708;-0.0088932822018929404834 0.23413959922142441039 1.0627892709417472439 0.11523574507546381629 -0.38093169342205007721 0.12268025364726015125 0.048910042331650256664 -0.053666107175958155384 0.17281950733729942171 0.055646992235498536628 0.031377750967556392037 -0.064562458994416566105 0.07532119249473739897 -0.085648711943173361227 -0.059252768504566663554 -0.0020096125353454893231 -0.041878517599221565249 0.028646401865028994771 0.00037856623627875035654];

% Layer 2
b2 = [-3.4371625917565800101;4.4022398228220156469;-0.10622523912761384912;-3.0010547888748768663;3.2698949152673146834;-1.5188090480489910838;-0.65627126903896104704;2.078991158910029835;-2.4512293277692842608;-1.0228301039733456168;2.5478388805491074542;-1.9036302853006739078;0.32973385634688545665;-3.6039362580912062128;-3.0325370757406537869;1.7358925134285041469;3.2246669761985442548;-1.9212983875403966127;0.085521502575635316434;-2.4162296353475594124;-0.88813402937012919658;3.0816994408424731589;3.45898914786752254;-4.0760917937234069086;-0.15701096556220137113;-3.6652746904757740332;0.49195914882950275704;1.9147762370298000434;1.6446350164117307102;2.8824197297086349145];
LW2_1 = [0.0048981620061239652258 0.66767401864540831813 -0.30531216353687917753 0.61011596395532385895 0.44555459639342992473 -1.0429550920245493906 -1.53118291962845543 -0.55964199162131866849 0.68119416077101790918 0.13377140598801479099 -0.21876138086549179462 0.042781461522906474859 -0.38091782020623238258 -0.25657144267224163414 -0.27457723419305413159 0.073995305686576764992 0.23033772079768943808 0.4360523500320238055 0.26637108416156862756 0.057289075065633854322 0.050412254479375542826 0.38102147739483088751 0.02195806284971577732 0.34451268949173624589 -0.12528968283601657485 -0.034199152994560874652 -0.79816784403145002447 1.1185315559406689978 1.4732766995325465853 -0.050119159476338590031;-0.37260566498459646301 -0.19122248924244178436 0.20733331810053340361 -0.62880091499861101578 -0.70331929195861320192 0.03091589735635558514 1.0591451098942641362 -0.17939065836342540927 -1.2868393370753541394 -0.0038582822472421930693 0.66206770055789776475 0.31866757962895669865 -0.35677325864546338696 -0.4097516307576942185 0.46346387324842724942 -1.0495692583067157688 -0.58178043393943501549 -1.0005327614271666281 0.74599481607331608046 0.45432433414603257127 -0.22545855042014123493 0.17198056578488549184 -0.49001671833275195489 0.035757805289722034703 -0.78767279501197440261 -0.0032087173749964503777 0.23670750547037699985 -0.76669268764773235159 -0.30108022878268492217 -0.20521000783063900186;0.87938527261128485168 0.002548726696875974751 0.42910220842441704203 1.1771017462837498613 0.37154330879511454633 0.94305779166570935512 -0.88320568686992828589 -0.70269349059817287628 -1.2845098053894183909 -0.032797851551585495422 -0.74677720386614976356 -0.70066096244917908109 0.24047833975771498727 0.34016463981348360468 -0.65835087573342432332 0.84776920040891912134 2.1032705391753072632 -0.30016176504992780893 -0.52795899759239373061 -0.56056592001394234259 0.23827126701391951324 -0.14655016084803823562 1.0194053683981223468 -0.43891639255032721678 -1.3935488255322701079 -0.22024853723900461588 -1.0319872112374492978 0.3353266209613650628 0.39198989532370448474 1.174916323599104695;-0.0077616375083525701584 -0.62805183318623969413 1.8227603113010970581 -0.4146382872998740643 -0.179833274375808011 0.11619078845942254485 0.19676947523475085688 1.6176776910180206137 -1.0213929549527758223 0.28041467092479865908 0.070570075804590071122 0.15106695996108759905 0.24467950143704816912 0.80673615500357720443 -1.3258272856457313793 0.30235360382748976971 1.2795186764654089551 -0.55048262938092018537 1.3422152391594577292 0.28181511743186354879 0.60041817074800629683 -0.32114891950193230619 -0.13869365288435228645 -2.3055029227797216862 -0.6140321258333215626 0.11412849962956826688 0.40645828509578596499 -0.29183713637270025654 -0.089512011653413145473 0.19127943135952862885;-0.72783925829190154744 -0.5865842276233921293 -0.27139330211061696296 -0.61708017433048967249 -0.55689331247917428502 -0.43625048797995574779 1.2866503200311669719 0.6229068978559758607 0.62193832154660033673 0.038707843500618684118 0.67200305823679995498 0.31975610984744040621 -0.019606275953607324447 -0.4155797927274467729 0.56588348129849164181 -0.96826002165739677441 -1.019054967661534139 -0.074337881666538097036 0.27158453353293737775 0.96357380888802046659 0.037450457897967609489 0.30360502562317270847 -0.42553315616030640278 -0.098986629537600345774 -0.21540176434876318057 -0.17613629986129347715 -0.131446360957114039 -0.58129617447021852961 -0.27187944204786285152 -0.49051064442166081303;1.071457646371782868 1.4628828771713902057 1.4170634119585545641 -0.96658708597246767447 1.7903283974360797437 0.33406835623901570687 -1.2186211784294522786 0.98641775204111226127 -1.9654859027925510873 -0.20125807822187422036 -0.78437554215656668521 -0.90644832783608153548 -0.490234996798169953 0.5562655510344657328 0.17585707487271406979 1.764125676310527524 1.9570388189717362604 0.89130336615114069687 -0.63352167767047684599 -2.03297377971102744 0.60116478395591443906 -0.97197182330540066175 0.60581373085312806293 1.5805257778184029771 -1.2676521882117390838 0.57996470542548406168 2.4297258840658355616 -0.37641522784690195635 -0.44967629763012301192 -0.11962772005260116637;0.2076501572535881246 1.2603834276887100341 1.3915064617574195438 -0.79391191362570401324 0.9298613075388552085 0.54754992084185871715 -0.80099623667357167101 -0.44066350816070126717 -2.4685521691450214021 -0.094271633283572631168 0.36701051410239665662 -0.99629251049152256492 0.32953618864013928258 -0.25323669913281127153 -1.8908294153532063664 -2.1605941496654899048 0.16179712109600907777 0.11278793339901567461 -0.19412128353379090595 0.16983269851772830883 0.043232019273752732291 -1.145053604917223522 1.0444408754795533323 -0.70766368394187695312 0.084998857470898581123 -0.66425205761568584251 -0.031351875070850909744 0.26514433963827999108 -1.748862675886292406 -0.47791472667165790789;0.64810877547011713773 -0.20767001514575925136 0.010554220398727824637 -0.57224941974873022588 -0.15409328165623545348 0.14909535818190938761 -1.0656123981773708564 0.29287710443005043892 0.091635258236381467167 0.011291414220264433046 -0.58845104265178116432 -0.47236796794872060179 -0.3957337811074658207 0.31576204540673596943 -1.1467681287786288813 0.67103714813207759882 0.28219126055190818514 -0.038514431078538649555 0.064215618740735516679 -0.5694287357144452999 -0.15857250576901285588 0.95183400853831734434 0.39147878341470648822 0.19756301782592833316 -0.99235274021850161663 -2.1186468728071479184 -0.49838608455961064259 -0.63747020216250926961 0.20323322294333626137 0.40716343945406974214;-0.038036883540378221835 0.90694310080248363715 0.82551726642116163291 -0.15432683634406849094 1.4658212525793241632 -0.36746702213431603479 -0.88257840523765485052 0.56771030053007121019 0.20124208713057872844 0.21771619124351504482 0.3305861691328975116 -0.21355014269627356494 0.15601465831138761065 -0.42050781157879918437 -0.73423732001459263152 0.093652173511484665402 0.35279424884779181371 0.4625275222095155403 -2.8309225482305637733 -0.38773066647055565159 1.0034371846903975545 0.44236709377176236524 -0.29426839398568899187 1.3229869215847771535 0.29569459399577446845 -0.30529772605948102271 0.33518666104945260553 0.34351299674699486975 0.38292160056695589976 0.45427525660243195382;-0.094913262300585984899 -1.120787226810406878 -0.1072575185457703556 0.032309065498493425017 -0.40834476292136606679 -0.1181526035855287593 0.23097997642368936488 -0.24842329184782888096 0.44975547101959789664 0.025825097440812776889 0.1759110659107356589 -3.3430118302020135346 -0.14832070554101942084 -0.17817264500255974857 0.19543180858330000405 -0.20307083161411776384 -0.28488759106754019124 0.04427187794366960194 0.44865596316634082097 0.29764233262532457935 0.16967182106251058049 -0.046834668430615698786 -0.14786453066051702399 0.34995327229796857615 -0.019686319078973505553 0.1350658349565082017 -0.79916177748623540289 0.36416635256018259348 0.6892655642137702765 -0.21501355862572116284;-0.2973130590159229758 1.9506166956756962882 0.50842691308501553049 -1.1083858472290677444 0.88185605693895108281 -0.56674281421868100139 0.52331256811959792064 0.65694383016355362148 -0.47406524760096613313 1.6818097877373490157 0.93088004328224127626 -0.62474391609470414366 -0.81073414089913076186 -0.42189284747212563165 0.34149355744733522755 -0.27587681912718448052 -0.37636952566291859146 -0.021310396873377365767 -2.2000734483117980744 0.44245812048304000719 1.1130226663517246433 -0.96171218311273298784 -0.72144123702477314097 1.7060133272776247804 -1.2787020456557125492 2.0606914013287624954 0.10502800409319874853 -2.1838590204611620926 -1.7450034881357998628 -1.3044235174116307618;-1.544736647842485322 0.24623734822065973527 0.24709293069181567648 -0.3347985531414684468 1.0532266030830435 -1.5331471293761684827 0.58210595878302018313 -0.073288560429911747685 0.55407568633613601961 0.023952905187541638499 0.79308284617222746249 0.13636760442231976587 -0.42734482868478723683 -0.68078650406608609558 0.87938873209979484535 -1.0776772925682507331 -2.0308417330776178389 0.56401093800116897103 0.62823273446414984456 1.1452300875736538543 0.43301448169172274127 0.1789040688277228619 -0.28391064203343940875 0.85207569863598620064 1.2472722686890986843 -0.060313901374106013153 -0.66752065047967090727 0.51266672615168706884 0.28543550619168045479 -1.1018729941396130378;0.73051613534170234399 0.19067547309291460467 1.3569342662050429826 -0.53265816120552922364 0.55206639593937500976 0.37967388008314928438 -1.5161345250926916428 0.21240097254037415553 -1.5823772448144948211 -0.076644378873948329489 -0.92945997708855732089 -0.24234514490225028682 0.033441641351689442574 0.73352549136806299845 -1.3944138646046264629 1.6488158078463268641 0.91986805647606695313 0.28367496596986441215 -0.78467509429717630098 -0.49572409287484597851 0.32225243596255465084 -0.59285982176380636055 0.91338305796979535334 0.36632013409134889237 -0.35899776145277662032 -1.1337352381321894601 0.31554058143143232096 -0.99378934667276908055 -0.064125752101642174985 0.58065277698644046644;0.12492023580831529417 0.095952000242274848585 -0.20413195469653386271 0.44885035044603088794 1.0704702922674365073 -0.24564571799162393528 0.22019341598562214291 0.2216844700022854997 0.44387797861313660341 0.040466972884717851422 0.27967771869280622088 0.30494802902231266106 -0.24035338552771587373 -0.23878110585809705912 0.42504692948574607225 -0.026793995535829680243 -0.42672904453382226597 0.44806160411805417976 -0.13572524493235360588 0.11344080457572433551 0.28663887805291787814 -0.32606514296226524197 -0.15024716608366192605 0.57387901488815273865 0.4393741584865851757 -0.15597227509800096201 -0.16647445867713608902 1.022960878023676079 1.0744045277494016499 -0.2315786058947009729;-0.31706231429261794164 0.26803190629110007492 1.8307857880789972782 -0.570924588733409899 1.4729871521616808572 0.35509719761647640102 0.21861056955241184308 -0.40677490786428222025 -2.1261829637686950889 0.30707781982734183579 0.7692815763614687663 -0.28093849794273301201 -0.33007820621562034002 0.61026992340434504936 -0.16206716487174308017 0.25461966792500961843 0.78788745289527117865 -0.4920491372119216722 0.61618359343157580454 0.080526087247419275705 -0.21187137165472333389 0.61929635330093901757 -0.71067685379898803966 -0.73880568950459990507 0.25041926325146907084 0.47051287234915606383 0.72564254663938876355 0.074871352950122940784 -0.50317829662558544168 0.063090016595320708159;-0.14071105860492230666 0.32270462554410678235 0.71921524511127743473 -0.079817497257219441331 0.68038419580904041517 0.58624783981655903542 -0.55990089164015766077 -0.44014698959950687707 -0.59412364897464309266 0.05678635449818367209 0.34286948113513682213 -0.12028101885446837449 1.4062745348705245618 0.30606213501836043722 -1.1482518634408396263 0.18789759845140407979 0.19522626232607748209 -0.24587272539685089967 -1.6656916533804650982 0.43948625106269195717 -0.76219336225314315847 0.14382403559931808412 -0.32867829592485314771 1.0816883998601209971 0.71206622888231341229 -2.7081524067260365207 -1.4676302204371249882 -0.61084502277400676284 -1.5610751606174513295 0.41312456016749365961;0.22122540005073179636 0.096221611385360658608 0.5784412576406908757 -0.51712487121309569371 -0.44354559768570156475 0.88438941997213094126 0.20532106878982278597 -0.52972164654240150305 -0.90756225576826476953 -0.37990075172934806291 -0.32610682978599553339 0.72432210884905479098 -0.90146529884819648348 0.30070327447015515743 0.27974356411102463404 0.94272132000624997428 0.65181635933632486868 -0.36610322775332021505 -1.2229830612372993848 0.80441732629176865288 0.086318892003512198707 -1.7370916630771313649 0.43667273650851518019 -0.5316511933180074756 0.64655800289962350735 1.4802326518835744462 0.31276895316226543953 -0.80599267123182860573 -1.208836137209715611 0.17354453277982520576;0.51880696342693677359 -0.64557043356309795623 -1.0148569453715825528 0.43924798435960249465 -0.13183058386111484728 -0.20279925389400341174 -0.47854946070332116115 -0.99358841614730464276 2.1158889617091762858 -0.19690445198219680423 -0.98655543023986902451 0.14930107091710248524 0.51280600428141687175 0.4133693396265087916 -2.2170008902216449265 0.40689886525940788253 1.304523610683733903 1.0339545830338354726 0.11205746147386200229 -0.11000236267034867177 -0.19376859874658663996 -0.61024705870152129439 0.028808727819431997202 -0.95401273839189515424 -2.3660859062616714787 0.02523648434636149851 0.050664766290253848702 0.83331158470498778446 0.34865552185013914954 -0.030492676527146406196;-0.44589661015894205276 0.24699091536452366658 -0.48140830023444863839 -0.12357145535415207938 0.00019964189856022662717 0.26762425763022984482 -0.0096969865370560709428 0.73516144046847009541 0.97762117316124985678 0.059429972593407640047 0.41196861756917485531 0.94223824164135416837 0.053336710237432416459 0.032697898846083081614 -0.19373561043689568884 -0.39553914064388184801 -0.41342402285369161952 0.089573035363270298026 0.84239042828708265986 0.14842366088497516152 -0.24189990341979400457 0.529540916712915255 -0.70127757482660046939 -0.018741632093086851851 3.1910846620764621306 0.22323606041265564581 0.66536255897032525741 0.071092043720810682572 -0.53580384142985637563 -0.069412961841816389619;-0.095850376061490202839 0.77355901149257333405 -1.1187785381293484654 0.83289848622769246944 -0.4226424453163122319 -1.2897631105848625932 -1.1236438247049913564 -0.62241118946111351207 1.2232630502803274464 0.08660870214147367574 -0.40689746907811802368 0.0117387558996268071 -0.80793510145791180843 -0.45526816159942695705 -0.12621688149832754888 -0.19425759801358377654 0.43431573021180280847 0.23286798559208088388 1.4424720458112860744 0.63359787573147008377 -0.73877305686504546323 0.25225943430731928574 -0.19309468335008811435 0.14077485813993095842 -0.49529156355898673603 0.97819700022208100343 -0.688964134923131577 1.1260895230873979589 1.8940753048726741703 -0.0052958770565689414211;-0.0062893913377321669644 1.4182025552187564887 0.15476870846751233923 0.82387966452256422567 0.41888970378407280881 -0.24890083455304878868 -2.0662572765907762928 -0.22342721528308645551 -0.1732797109581241668 0.041509847857354939538 -0.20357607198453916975 -0.7510347871570604017 0.071349568691159215295 0.11294444890144483828 -0.72036791111505360519 0.43281393040431748176 0.24618600861695724702 0.082701560078270841547 0.64080538087972127581 -1.7080726549697073935 -0.17285435050760397657 1.1121425552453994001 -0.33821845010338374982 0.74460437312701988066 0.83017799211858767094 1.348164672182965429 0.42437037685375644802 1.17179739999106447 -0.92890792497554597329 0.26361912244324148258;-0.25454518426451833157 0.44020493201912036518 -0.70794016559328787341 0.57121605809335584958 -1.3116053051356237891 -0.19414268579853802277 0.58629016259919175535 0.96467795585987148321 1.6824429611157256659 0.44052439684851946167 1.4795014560058392661 -0.68910975863390522278 -0.4202500005756117929 -0.43514461054521136329 -0.091473934591740996281 -1.8278622365701284735 -0.98560770849690004791 -1.6211357982328178373 1.63115257877894404 -0.18591929876521973153 -0.37864639105652897477 1.7515393910169827496 -1.0228902259827383769 -0.29442187887629089893 1.0853677008568634044 0.31100433591752291163 -0.17816432801898995919 0.16191190577192113298 0.080120817967442886642 0.25028837899339934081;0.1209705401324251417 -0.1653172141393297323 -0.0094473259951774260501 -0.42124757654151034902 -1.2722366331310204224 -0.36388425509266475455 -0.17171795229238484559 0.32710059820664855179 0.79656326703895830033 -0.010892128958861862359 -0.17924338695487471163 0.14608832987668057823 0.22481649264003572553 -0.099656549796219018322 -0.06149365060163185237 0.16391324854801034294 -0.69321895346926476478 -0.54027130727242422825 -0.22173507023947605643 0.54984285241569086367 0.37507092920426959859 -1.3235835649189695573 0.2440291200354536838 -0.29761353535986534435 -0.26191542600807743435 -0.54947214446368719543 0.031035761314077425777 -1.5344277198890539093 -0.15912802842781931245 -0.10766351095884059419;-0.067541618191517271974 -0.46355330213457590638 0.79719457602216092784 -0.098311829195925126701 0.298157708292355772 -0.037994718950683938063 0.0051321890317384127878 -0.1267507075990923493 -1.5690443384997814213 -0.026135003150596906873 -0.2874519002367658671 0.39645338680182728996 -0.30831624033354360082 0.22543177530743174763 0.15940660905048442686 0.2110678406723551781 0.42337288271938050555 0.62569140520401367311 1.244828925758198146 -0.17793380425719851345 0.61987926210815846861 -0.87085238894917549324 0.6344261168959794972 0.27093812790326593509 0.81448584704132509504 0.13813295099197592242 0.25829401454336559096 0.54367815319889301051 1.2073428556657588295 0.24112854788356424818;-0.14953475569236945875 0.34365842377282546094 0.7226871278896438433 -0.31171671541658824145 1.420323199957871374 0.28735331659251361902 -0.16203669079336960324 -0.088311045400614129885 0.068496347915789401739 0.17045583651632500999 0.25431634644331524431 -0.11296839921540977048 0.61367302978548121661 -0.041868197747503971273 -0.64845360421697373354 -0.053490311753807681661 0.78116505603365327115 0.3178994781883746068 -3.2198512276180402125 -0.0027711192648699495972 -0.30727936003449080049 -0.23826098413181795443 -0.50812906475160546371 1.0191801746372606274 -0.24208489441205663373 0.022111195772791802927 0.14372695141287034071 -0.031994041481872910471 -1.2052381720161358114 0.21940854110265153865;0.26991191338755493589 -0.30961054488997036271 -1.7132215590126842475 2.3815631512318091723 0.16210122164886464624 -0.69517281349843951244 0.010191368257149391319 2.5106078817747605747 0.81218882208923093291 0.24386171283894431117 -0.18881890189679700898 -0.28023888396528046085 1.3530718162133603677 -0.18448849367863795479 1.1918768959945598152 0.5201097672519076065 0.12945814455289136879 1.6834544233752164466 -0.023469192138222655375 -0.66095507498926142631 0.85450669164015269352 1.4993115383166120136 0.31839884099951826224 0.021819551369414935671 -1.1923931788477588611 -0.10311778206324395679 -1.6410152785346354687 1.6134616708055971035 0.65752728886614486559 1.1649756310757244382;-0.38702160322141337945 0.25570368138166471583 1.0708027074561192737 -1.3987409296684347737 0.20209576401519394051 -0.38245394263595761108 0.33601212849452005704 0.70896572350412212504 0.10793762714395679914 -0.18245423000767638233 0.33895422809119585272 0.31297444819014164086 -0.8614873644004286124 -0.54904883867281506493 -0.38289286608820238822 0.07274088154481744839 0.36316432333612885808 0.26126039842158588211 -2.7471864291759908738 0.40467825964420461871 1.6729211130801571183 -0.26971881117839296982 0.31236751129128625948 0.48443679038220976985 -0.72501109759489912321 1.0239931662085925979 0.29439954070586238366 -0.58972138028223597406 -0.23883885984605804365 0.19257207345855931191;-0.31403618095010693567 -1.0804272722567334064 -0.40785233424388450674 0.89802992802689729501 -1.0297676350913804733 0.15239770659453466539 1.1484474039147818392 0.70813449307591513904 0.054456557465821807396 0.062941328644178312635 0.48728436854721307592 -0.23793063612795214978 0.30666198523936866183 -0.44463232451376560883 0.61291285543588891471 -0.98692200038901367609 0.39914959347647355203 -0.7429794536612793765 1.3529110329086593278 0.7773645678616858401 0.30210888983596079216 1.0337823013728277832 0.2523979495336276524 -0.8950827060103307975 -1.4794378442914850602 -0.41859225150387280312 -1.4582979881393287602 -0.41402915762765535312 0.32495173301812807498 0.48085701702422745107;-0.4718121744674394491 -0.1478394506445487866 -0.90725724488716252836 0.74423869175795953623 -0.28968013265301484349 -0.6312052712737189486 1.3210115025277031631 1.0673290856533439452 0.74088404588684064755 0.18400165930521783508 1.0270238943193277237 0.223988256246930445 -0.14569642809869357003 -0.49669485648516703558 0.9653253150458933618 -1.1557394350094931657 -1.5418219511060209381 -0.25556906615566271634 1.3080687180504038114 0.46404618877485714901 0.018170959304242076393 0.80117867569956979779 -0.56416099347160431066 0.031276864691459405066 -0.41476961344601859238 -0.0018627054129792125492 -0.69592724687388329841 0.66135712985854533397 0.56959487501777883445 -0.59517184383461962938;-0.69368083923071033325 -0.75332645689652866228 -0.60650562409232056105 -0.1318286545257074116 -0.72889737608432392246 -0.22566559822689222226 2.0197680526523056344 1.1534141698227542427 0.26862113970055601087 0.10163192299024298437 0.94543682551768426503 0.24850268568871491937 0.099832300071085469662 -0.59794759405214215064 1.1235918807496951821 -1.3807774618160086888 -1.0142234353055923357 -0.38504313250382127265 1.2531856216454659858 1.4366067465525589331 0.15705266579483453948 0.50806399883092123737 -0.30728522540174002531 -0.13587948884456668708 -0.62078626839895456602 -0.67141998161802585177 -0.5962945439292212102 -0.70436276964356725472 0.27448852799314266138 -0.49226331351758140231];

% Layer 3
b3 = [-0.40314381910394680997;-0.033374445068621048927;0.65096774950859503939;1.4710213691086631016;1.0768000140032618628;0.16525231721837813081;-0.33513659171382353952;2.0588791591926720592];
LW3_2 = [0.16234971617073917782 0.8287704473395608451 0.060180237602359860916 0.24644787326153633211 0.044183813595452141321 -0.018901637180630030677 0.13881909949349133249 0.1908217376779939578 0.026395707410376136742 -0.16654991258814591526 -0.0016367015387237331125 -0.091431425290779425041 -0.25941329231206627925 0.022876134651748113169 -0.14219735245159464965 -0.0082981673113550272203 -0.16763331754226540315 -0.2304032953476585488 0.0703939296149892757 -0.017816870086822946678 0.036508851474597724118 -0.23264461489517662685 0.15247039444362717187 -0.070169577864054574756 -0.020518909770119296565 0.22139168961182101314 0.0080033009722372087935 -0.039776703112486599956 0.019495941505229021085 -0.096879036674050802991;0.076915716035387715621 -0.3808243975486799715 0.032434002658783364637 -0.39189877409184314949 -0.092717213587985528034 -0.016789013107974620764 0.066959572442717205099 0.037164170909786270469 0.22494621868936509612 0.098127926170511123316 0.034730531439893491674 -0.17021930605860249863 -0.50379510123936854793 -0.58209672925843392033 0.68543049528282695704 0.014415811768270779189 -0.10066698702471743587 0.18940284128522646978 0.05878544385898298863 0.016827660583268452127 -0.0060474980170884245351 -0.31978101385675400392 0.59718934408768120647 0.38390264144822200398 -0.069279211013704683486 -0.30354328429719901195 0.016461542466972362703 0.03811963382935513317 1.00969368537262838 -0.13136841803656668093;0.096982279517944525171 -0.31913540073691587518 0.020083713479011947728 -0.0027867310128251603953 0.29620104225283400146 -0.084845736485089820467 -0.2337971260715133448 -0.23694272583725944914 -0.11627637028210598136 -0.03348239218751120766 -0.00819417422661085533 -0.14688520590934062149 -0.30012450071209773039 0.22711016282276053069 0.075159109266702731067 0.22817004809234109342 0.30972239588250560782 0.17645902105820412964 -0.41277648118589377324 -0.075227170054422823342 0.34521465713810406406 0.10761523706002962264 -1.404657673362064374 0.50959749174550339479 0.1422530862676205099 -0.063276674546614494754 0.060368356502379726114 -0.19233381963816378879 -0.28252463381068554371 0.634635598851725935;-0.085673258537772134513 -0.31211767530867762233 -0.042751574085853165375 0.011649637274934100672 0.36897957603868580811 -0.26741967615254808033 -0.1105895012031597735 -0.70128778260817881129 -0.15770027327915847604 0.067556394085452914355 -0.22202280940054563985 -0.17410656849782590871 0.44310106765236284554 0.75814233321937651855 -0.016665286442670179667 -0.39781435718850660654 0.023179998054584809164 0.078369315934766259346 -0.34262643914784446375 -0.021646133394688300833 0.45260779764728198415 0.1604161487120863705 0.57557609262218401014 -0.092383156412489675358 0.27568892710048964467 -0.044039573545640781083 0.013933725134142909557 -0.12544881908130725567 -0.80047622880100055553 0.8947065710332873234;0.16191640818446204064 -0.22180799193858266594 0.016695923391956482562 0.082130478513573773602 1.0242395497585172759 -0.25684812549475294352 -0.040461022419302584974 -1.028425740202102201 -0.13773016339787622075 -0.34341338022744899439 0.25492192833988430722 -0.19446734612474853021 0.89829126694408234499 0.68507762012875794699 -0.13913589052263833357 -0.23007884067739722833 -0.18166709337640118971 -0.0024477584349057611088 -0.17500239561627245477 -0.055208324752041085248 0.13986617613500548774 0.16135523170855556319 0.80330958620455783503 -0.38866881364426270062 -0.20089189096911538868 -0.039719945635698583608 0.011480444572922979263 0.28178369654218188289 -0.48416247630476805242 -0.30637789460947484343;0.11606465388929157467 -0.12561195419456247513 -0.069441152498583819108 0.098766892646711040848 1.531803625650767664 0.21657165438094910792 0.0049713395430145265394 -1.1021232405395269272 0.0075905446112011828314 -0.60318429982965482417 0.020536354242619275084 -0.17076743063121210819 0.52979719829371318962 0.46352908206968612692 -0.30321666579476780345 0.44946599680348020556 -0.29876425847154136628 0.021666194796933740951 -0.15210798463235142286 0.048820091010875241166 -0.27903990549613399974 0.13236143029339922372 -0.020975632281035806737 -0.096278944994093881848 -0.63235433164059628997 -0.024392334115735450628 0.042985276512008105398 0.60638075955641834724 0.071760319790473175994 -1.5266089970715435165;-0.95895628083922612728 -0.011580336436492220942 -0.10382512480314810832 0.079029216415832326259 1.0478496395032379507 0.077168643233238992662 0.030091796337549225199 -0.3336390759152715324 0.55211929411410376467 0.048471804751831215619 0.021610104779880748294 -0.038510086176181103357 0.22041708801433632092 0.14294760418486818221 -0.12986547343773688357 0.0073714477632210303679 0.16408643722017485223 -0.0075446052197988980673 -0.10509756322591314037 0.70085566002743560077 -0.094114701189536492665 0.00080644226997445900892 -0.27599220551000919199 0.10115613209193259625 -0.36602587500467126391 -0.006964025518477617166 -0.47405465671526658689 0.44869813403930480789 -0.083052738823613858621 -0.78271358599316354088;0.016579823199177882997 0.026704400578227732721 -0.59385490018241571253 0.017343882841847832466 -0.89576395429962907269 -0.073194152887703520238 0.032744755319720361686 -0.050672439763818424852 -0.0043511101591713619019 1.6605016045694236393 0.020520044662544922875 -0.016844450831431677373 0.11770667059157199907 -0.032978392457036029284 -0.047276918122220547291 -0.035566503815019467893 0.026486787811590549457 -0.0020443034276872527194 -0.10491425753043262525 -0.044659070020860169858 -0.085473178956073203594 -0.061868991956044942782 -0.061666481635733932931 -0.026488483532415483396 0.07826360305113314042 0.0024635651069390899874 0.047271350385898518176 0.47491883794674905062 -0.014846632143475028964 -0.033523197126991331751];

% Output 1
y1_step1.ymin = -1;
y1_step1.gain = [10;10;10;10;10;10;10;10.0000000000007];
y1_step1.xoffset = [-0.1;-0.1;-0.1;-0.1;-0.0999999999999999;-0.0999999999999999;-0.0999999999999997;-0.0999999999999937];

% ===== SIMULATION ========

% Dimensions
Q = size(x1,2); % samples

% Input 1
xp1 = mapminmax_apply(x1,x1_step1);

% Layer 1
a1 = poslin_apply(repmat(b1,1,Q) + IW1_1*xp1);

% Layer 2
a2 = poslin_apply(repmat(b2,1,Q) + LW2_1*a1);

% Layer 3
a3 = repmat(b3,1,Q) + LW3_2*a2;

% Output 1
y1 = mapminmax_reverse(a3,y1_step1);
end

% ===== MODULE FUNCTIONS ========

% Map Minimum and Maximum Input Processing Function
function y = mapminmax_apply(x,settings)
  y = bsxfun(@minus,x,settings.xoffset);
  y = bsxfun(@times,y,settings.gain);
  y = bsxfun(@plus,y,settings.ymin);
end

% Linear Positive Transfer Function
function a = poslin_apply(n,~)
  a = max(0,n);
  a(isnan(n)) = nan;
end

% Map Minimum and Maximum Output Reverse-Processing Function
function x = mapminmax_reverse(y,settings)
  x = bsxfun(@minus,y,settings.ymin);
  x = bsxfun(@rdivide,x,settings.gain);
  x = bsxfun(@plus,x,settings.xoffset);
end
